{"total_layers": 5, "nodes_per_layer": [35, 20, 2, 20, 35], "learning_rate": 0.07, "weights": [[[-0.3285774610946494, -2.0587407789550465, -1.7763382619015988, -1.8122609234364064, -1.0338178891503584, 0.5675614129177933, 1.1326140538380605, -0.3437411300483447, 0.33572795109432463, -1.46331054368673, -1.525942985307442, -1.3580119030168838, 0.3248434137752738, 0.02449075893154043, -0.9590720534539754, 0.19942605766318072, -0.28648558852465705, -2.699921483264104, -0.6736916356763908, -0.024849346211307927, -0.3750204233538734, 1.8850581207152792, -0.6083945013825238, -0.0884641023330856, 0.5588688742543365, 1.6967165884126263, -2.018774923222949, -0.06455317540125304, -1.5573292339370834, -0.08817714227337814, 1.9880784504436253, -0.5535586155103235, 0.029517634966425482, -0.5117881809623989, 1.4222689575665164, -0.05211773024294262], [-0.8227044789181335, 0.005963659313139243, -0.2084085965758744, -0.628480640421569, 0.3158349486353847, -1.5073726359543, 0.10603121011570973, 0.4735277175243509, -0.14312496021665516, 0.4195123747280736, 0.32153616000395563, 0.10342308002323038, -0.15244305074483824, 0.4448004535608131, -0.22626866082003033, -0.66996371981332, 0.7747060184482313, 0.16527174885036444, -0.538923897156894, 0.9438524167935368, 0.4274255805073788, -0.5033840873895413, -1.0982144748001585, -0.3571369668695235, -0.8221050022755005, 0.47152953789673563, 0.39086944486572417, 0.5042967670685774, -0.6081698681168134, 0.34457897083890887, -0.2524483048867805, -0.5985027575732286, -1.0138722032171983, -1.2669940293086162, -0.07224291602674769, -0.5590211213637954], [-0.027182074697932365, -0.2444729292003392, -0.29743618380460723, 1.4094166295979602, 0.8581941760279325, -1.8515596213422898, 0.8286828066933644, 0.5638091333677845, -1.3161039387620423, 0.1307704592136375, -1.790438856099584, 0.13017380116098767, 0.924079087853438, 0.11629786360620285, -1.0182963319217326, -2.475191955537073, 0.19934164440528016, 0.3551033581263505, -0.7370628709596436, -0.9849490214897516, -2.153043474921154, 1.0343331131165279, 0.2314552484448919, -1.2343697427925877, 0.17946875051059427, -0.3074515409651746, 0.22816551741979157, 1.245256457391535, -0.28970465264642764, 0.296531640609445, -0.5975344374268112, 0.4895304312266197, -0.4045337448376416, -0.558950102369561, -0.22355594773614684, -0.7905828518580811], [-0.8759310473190483, -0.868207071149055, -0.7575669907612949, 0.5910080920014404, 0.10868431130689717, -0.37792447446917216, -0.8312725155067482, 0.25710826259540387, -0.4319311265906341, -0.975355580320464, -0.9993517121687077, 0.08087146082161058, -0.775140169876414, -0.4150607349195532, -1.449262992588308, -0.06985118533930545, 0.3370606991037686, 0.7085802578558991, 1.1550706432700921, 1.1189469578534808, 0.685995730038334, -0.3117579984434775, 0.42115037178703996, -0.6573589869434656, -1.1529783588439206, -0.9757177765239197, 0.3392603268477621, 0.3396914198047944, -0.18224422601754045, 0.34254100812841737, -0.6931890670076805, -1.1998713281727516, -1.1479460146169018, 0.38832954584891977, -0.03247316784518292, -0.9227858238189123], [-0.4789959642372782, 0.43239600943057727, -0.2436353345146232, -0.14073017025847362, -1.743679978963602, -1.6061602201282728, -0.5129908393254575, -1.709743264273089, -1.3574091760221403, 0.8312687220153157, -1.2908493275434605, -0.5996894314158411, -0.04328549965868112, -0.6271914363298489, -0.41384029544307, 1.5829092360611015, 1.6026414995472835, -1.0673023226454372, -0.6033660302836188, 0.0330692900243706, 0.6706267551392452, 0.4349416445462054, -0.8585335795077204, -1.3754395338917909, 0.1487091321030512, 1.2585571785435616, -0.24107941200566912, -0.2597823752613837, 1.1361978726389825, -0.6551933459637163, -0.17173471690481273, -0.6552630440899903, -0.07328036560011693, 0.4494145618358097, 0.5893792852904546, -3.367249817795066], [-1.4076537618303684, -0.2628378534403027, -0.7966991593025169, -1.2624780784562835, 0.19798153023948867, -0.5252420672687642, -0.6807919642647356, 0.42795466239662894, -1.4955401332733715, 0.7105380746638755, -0.1635989867011799, 0.5464760489434637, -2.0923075459523557, 0.5587821868758355, 1.109688580536249, -0.02143445752853549, -2.4576653303554044, -1.546946027574018, -1.8146738656095118, 1.33458282181235, -0.6076921943697997, 0.18400030635355635, 1.1334873132836765, -0.08095581335047614, 0.4903142002157854, 1.744472529333301, -2.443248350589722, 0.1989553268621366, 0.20212465547756545, 0.6848402103778047, -0.23831371846312338, -0.5581387622463028, -1.1095076880074355, -1.670916559092534, 1.0238809515375398, -2.2467878339358682], [-0.19908667860232518, 0.7704008837447422, 0.9152712912499973, 1.3311982974023429, -0.7128476134631273, -0.6773655480481038, 0.44938981814780976, 0.4258840254304557, -1.4917718693630255, 0.6161457126972771, -1.4063496920420877, 0.5106725909185336, 0.18693342607754088, -1.5562356983009742, -1.8051052198710151, 0.07751038209708218, 0.09938438391889835, -1.0786235546313572, -1.5584618603191358, -1.5432079545594901, 0.5177721901106487, -0.40540789536713273, -1.0172955593287585, 0.24922627141348166, 1.1249143075765042, -0.49993844290187905, 0.3047963594920091, 0.09602338919830425, -0.6432871234343787, 0.26177203434585017, -0.592633571830709, 0.5285203747533362, -1.6418984168061064, 1.3068499500189557, -0.33961897566125654, -1.9649113104125073], [-1.1167244449928881, -1.8287167834016829, -0.3980718883792097, -0.444510286671424, 0.5114416163545302, -0.5596676526086491, -0.043133828517980775, -0.11868466301524504, 0.7287806705447829, 0.36386862361422895, -1.1697572016545634, -0.7966569767281547, 1.062415996020369, 1.1406387347022346, -0.8114496872053771, -0.43319629716737285, -1.6808107871799056, -2.364996055459778, -0.9353557205854931, 1.438622425291036, -0.11909375762118123, 2.1586899093723786, -0.19155728432528682, 0.2761777533254634, 0.3212217621684874, 0.5360080412789241, -2.0146729517385964, -1.4654429353916212, -1.676501888383022, 1.7776984282610053, 0.344045630450136, -1.1647576499289174, -0.8700630820976116, -1.7071568130086956, 0.08934691841860443, -1.1881874522687061], [0.20264586199884077, -0.7286405034316443, 0.45754646410131694, 0.36681056216028124, 0.9452100262659341, -0.7697741743107493, 0.1317618225876586, 0.09837876697987474, 1.2259516883596997, -0.8553248392821943, 0.9223838266832043, -0.5104444133705044, -1.0111115243999427, 0.9501351767956195, -0.9008951033790771, -1.1569724350099466, -0.9913968245754636, -0.2523990585524144, 0.30950219842324933, -0.5761291728906545, 0.3281338588294887, -0.8836542242276199, -0.8184415089926895, -0.5263824827929713, -0.030982534600285, -0.8742516915730278, -0.6350930050800963, 0.6475362890411921, 0.49415918588104496, -0.20895350481727198, 0.30129196456847485, 0.0243480584053765, -0.24995826457695636, -0.19516725517842468, -0.5472342066069269, -1.0686477037713278], [0.9871536748587154, -1.9338249976815132, -1.822027434926355, -2.0788630857667467, 0.4242327131624936, -0.8196931643059678, -0.7816048472931149, 0.3286828208436449, -0.5385467853465246, 0.4312731228254932, -1.4217170397950154, -1.47131651808927, -2.371231495887268, -0.09577287948516777, 2.410899642123638, -0.46075357084302176, -1.2076929796258729, 0.5289695836485676, 0.6986830820407329, 1.233237661549726, 1.0166579077675009, 0.006452010932932693, -0.06342090229034451, 0.9608035281016041, 1.1838215241919965, 0.515963116901754, -1.5247420534572578, -0.4153240751709612, 1.5066571944369533, 1.4931138693873955, -0.23836371465299705, -0.31883021745266144, -1.6124446313280778, -0.1598799871123606, 0.7127693966348808, -1.835935657067583], [-1.9257962436788165, -1.0253701688801, -0.2551107407027388, -0.28922098160784887, -0.19543713821768138, -0.11531184305361532, -1.6824040646478438, -0.7954990624566939, -1.0662928220656027, 0.9850755172770898, -0.5043304933083012, -0.17449877764902197, -0.825986524847028, -0.33832155190325913, 1.132500110264092, 2.0900173300610665, -1.921828721589818, -1.2677073466798312, -1.5558260900938865, 1.4844782024328067, 0.717107684626572, 1.063057221004549, 0.36275651453220403, -0.030784226762785905, 0.5196749066355028, -0.18662184207138777, -1.7477322325938662, -0.9243752350195799, -1.1500203193572245, -0.0803286013463175, -2.171276788317251, 0.463187884735003, 0.13895354395646248, 1.3838332959072628, -2.811092620851409, -2.7743732935388254], [-0.47773688188523383, -1.717547689922316, -0.23530087176196282, 0.06994389221738816, 0.4470235520779424, 0.011158986120321674, -0.862289279024003, -0.41369044945498135, -0.5775662106997879, -0.1449838857396517, -1.5266765222367131, 0.7840119305854798, 0.8779960901727263, 0.016995362328947338, 0.3084700718058272, -0.05717893285743068, -0.14941648684060257, 0.8276877332813241, -0.16548037709199914, -1.2301120356647912, -0.9428817972518728, 0.1341151698707683, 1.1894199335795261, 0.157172112764322, -0.8769596031205823, -1.4901661684394982, 0.0963681342725793, 0.7427257545823553, -1.308221905772035, -0.2405675978786612, 0.35847227530938125, -0.2836754620178722, -0.5435671046329236, -0.7870076985925025, -0.9066166749249257, 0.08679084425185515], [0.06308512526020188, 0.441333940328603, -0.06503547615451803, -0.024389994482604968, -1.6961869921434474, -0.6425860641520116, -0.5962524230008761, 0.4971590616628616, -0.7303237870766673, 1.257783020286082, -0.9803932808972242, -0.991167250461303, 0.5153542776030222, -0.1957329149917181, 1.0907621494208857, 0.5145714568621277, 0.9947088119978947, -0.18695413615994264, 1.1522716108138795, 0.06572829299417143, -0.4585715168244775, -0.7689333666518839, -0.31235330501683534, -0.5875367960381693, 0.0750829168353651, -0.7620201280341642, -1.866911409206647, -0.9718494799386679, 0.08261546136783239, 0.40882360737566537, -0.1810995059051695, -1.6526079426014253, -1.9675560561910606, -1.2291037594400602, 1.8899856473007979, -1.133097686650923], [-1.5040016515472336, 1.1434687903304241, -0.2900711776913811, 0.9582621039554816, -0.39264686896345075, -1.004171602792941, 0.07725503737367845, 0.776162077488747, 0.6900509700242078, -0.41799795835041836, -0.9049317186047823, 0.31412624073373363, 0.42165900251475097, -0.532034239904002, -0.12465748453132017, -1.4208942673803082, -0.9535968031928124, -0.12313413128210357, 0.21012053341454967, 0.2947419741986877, 0.3329213960901292, 0.10377024186249975, -0.10288704881197797, 0.7151436827968356, -1.2330297104154877, -1.6904737729003136, -0.6664869012291381, 0.5704214297193059, 0.6005083170928325, -0.9516469660769042, -1.8381322463275807, -0.2829185707136208, 0.8580441943592391, 1.0624505816247047, -0.8058958664624218, -1.2832822003433626], [-2.4566168659634102, 1.3019206128991143, -0.08311072214170931, 0.46603338337313205, -1.3819427023566841, -0.4914789703040468, -0.3390473927682373, -0.912899286598656, -1.4045690842563252, 1.4389934310341392, -0.6559298729049546, 1.0456155529364373, -0.13244287302313132, -1.0953139941043193, 0.08565821706651862, 0.6987590268049294, 0.8649017017664948, 1.518653876137616, 0.08210634188938576, -0.8509514949448366, -0.27210904667731706, 0.5344106981760176, -0.677174933662982, 0.4435201626497247, 0.9463413011337096, 0.7482357861815659, 1.6959340019597078, -1.6444730163569712, -2.3476652843620887, 0.4281955794328847, -1.7416292935490831, -0.054860170459847604, 0.3477277215223701, 0.6419811348257303, -1.959085825688249, -2.245626994000396], [0.8816259061191651, -0.17958364963499493, -1.4385811235006043, -0.19869942130993387, 0.0011233491951852445, -0.14745754643560305, -0.06706880949600214, -0.9486821764196623, 0.6452822335297886, -1.1609356879218107, -0.6081585933347216, 0.5696671405486419, -0.009151441433576954, 0.5514264617553285, -1.0499598777888692, -0.9757535416937771, -0.4975880299313968, 0.08923677905265559, -0.3359020843157839, 0.6657910037917479, -0.12346653468020524, -0.5779582512005589, -1.5035893627172983, 0.40262709282797793, 0.3345201972091556, 0.5193621323542996, -0.009121894092158736, 0.43210668734678004, -1.3617119935086148, -0.007776322265905714, -0.7337779889729078, -0.8905502471477286, -1.436817621351192, -1.2169056724803875, 0.1871482955516327, 0.15694801844455777], [-0.7776192639877503, 0.4091969589695244, 0.5945404874617269, 0.6329902085285062, -1.5031742134993356, -0.7700120549372996, -0.1639652755239129, 0.0706936546452655, -1.7374261397593516, 1.6997207889628927, -0.5159945672103291, -0.5361117730261188, -0.6763233843438669, -1.2115551330950816, -1.1368679918892353, 0.519390027766151, 0.03250032829147807, -1.6983368994084798, -0.6236634609276706, -0.5603528410757433, -0.6285155651567336, 0.2819882966962528, -1.3209728242967247, 1.0869992559802162, -0.14817689289666813, -0.5870667471904943, 1.5446905697902005, -0.18167223290128942, -1.4735659946743143, 1.1856350733144898, -0.15552302000157922, -0.23863526788300737, -0.5549434578218397, 0.15510159652844033, -0.7805549887035652, -1.8308661197226337], [0.7429736445975321, -1.4781395985788446, -0.741787927701096, -0.06292042913653645, 0.5535084222256204, 0.1977855980960793, 0.020210593680294354, 0.9084450767187505, -0.26777818493316374, -1.1381833830351926, -0.740504932989943, 0.934238182554136, 0.05275019354519667, -1.0507621699357022e-05, -0.6557087775875973, -1.9895304309650048, -0.4123291363674837, 1.4770073068741196, -0.6284878446072969, -0.9633095552913351, -1.2490252136477142, -0.49305606950680025, 0.8612770135065141, -0.3123892920939394, -0.7039463559619117, -0.3261442622290392, -0.7270702616920653, 1.5075860830021788, -1.6343833596455342, 0.8804764854933836, -0.6341461579096903, -1.1439999162948662, -0.18499325916209264, -0.5524018969320705, -1.0937393749058109, 0.24718243996211675], [-0.8963030444132415, 0.3823290870182076, -0.13677757460571244, 0.8791477088207762, -1.3547378128503218, -0.38561979628279347, -0.49388671351612806, -0.42696400093899234, -0.354794703308926, 0.10131729551140635, -0.06928396318073389, -0.8953570121406342, 0.5860055110587551, -0.5218966339653998, -2.057547251437437, 0.3210665000715636, -0.3229791754879951, 0.30983152952312065, -1.4608509507654384, -1.865651502284238, 0.6039775601010139, -0.010783412754255716, -0.6689843508133183, -0.37358226732658967, 0.5380314690261272, -0.5643922300686146, 0.5002711029155896, 0.8425375322054084, -0.9790516729855298, 0.6906239673851893, -1.1334705399613931, 0.09781356760589517, -0.7692626810435741, 0.8468704696588915, -0.14323238491228246, -1.4851536365328675], [1.3930995425269324, 0.17654772438838687, -1.4810509113698587, 0.16902290468154177, -1.7162927900063578, 0.13819403013721232, 1.3123431951333686, -0.07485218602912017, -0.9407540585479376, -1.367227321127897, -0.08435174934969225, 2.1433453393988673, -0.09956121210428971, -1.699163666999585, -1.0246181477060075, -0.33450365095015994, -1.12583548137226, -1.4124255705224786, -0.9880993401171757, -0.2842587503395131, -1.163795685137688, -0.42032302962905127, 1.0259726545675338, -0.22372988416818285, -0.9231325802529081, -1.9433938510367106, 1.5850951770400785, 2.0944277133116853, -1.0458571372065415, -0.37528023200358096, 0.5766335633246712, 0.6505067788030121, 0.8102634746086573, 1.4430058413933213, 0.6210034349109034, 0.165659802043739]], [[2.8313732587714457, 0.6130624540700665, -0.9967026658165802, 0.583471658148743, 0.21201426130871645, 0.46810306027413146, -3.674148460190823, 3.9043551314915974, -0.023396982858079694, 1.200898726042975, 0.22027504443516463, 0.6118471542597675, 0.7803109873078731, -0.4296893093230138, -0.7914636702996898, 0.752758061656521, -3.499942854271427, 1.2968857493538308, -2.171820262055601, -0.7121780012982232, -0.8375983457311375], [0.1192291327898076, -0.9292408475335172, -0.4614562471113182, -0.36612681156609583, 0.7681672705597272, 1.1746677027487882, 0.11202280246225459, 0.6080905602642143, -0.8474350426816374, 0.9158530447069909, 6.705709847654936, -2.245357850371461, 0.35575068660002634, -0.7676285360743883, 0.8942181817762166, -0.2029837085449415, 0.20945961895564538, -4.379214157112778, 0.22727814652584316, -1.1323984985082585, -0.15458045281807442]], [[-16.36390838462293, -12.096071461737361, 10.355384588369219], [28.259079288997803, -2.142216556549842, -1.8959990662318351], [-16.429057808507647, -16.52634247738411, 16.84908605292934], [-7.2425087699861965, 20.78356842541882, -5.206468774486241], [-10.831520014767513, 0.11314586999808614, 2.8102797803517454], [-27.738683239805013, 6.708012134170997, 4.953782887379441], [3.0094838731127234, 14.676178432478228, -14.955182424959872], [22.733810027602434, 3.298539074425116, -19.219069382627], [6.848748939159491, 8.060463311420646, -4.7014833495943025], [-12.563156742555552, -3.6118081667540136, 10.306167556373229], [-17.0145384326975, -6.266323998042597, 5.74656156037514], [0.10532169557947872, -20.74332455618657, 5.120094206821437], [7.950590256219504, 6.4827017461879315, -8.075140113889315], [-1.2099668475766745, -27.843541062893276, 2.695384683095971], [-4.286578397868102, 4.5676273631898985, -1.1084809728012728], [5.778808812972303, -13.479208385717941, -1.3702431424805017], [-1.1066867952498485, 24.51494955858804, -18.645639606870418], [0.8513875207613699, -19.177448971321496, 10.920716985014538], [21.490931136168353, -17.483405738302135, -4.831963923078961], [14.635593539192563, -16.47625019572016, -5.327131473140532]], [[0.7185837660984782, 6.487827305849578, -2.3247615034160063, 10.891813742975973, -0.4597015272393242, -8.94048734842019, -4.913903327934363, -0.6414431342463802, 0.7409433071490181, -3.987765539697406, 1.2640925874107718, -8.629119067900126, 0.6472551422378722, 7.867102013769952, 0.47241383518864216, 1.6388276142219802, -10.791041974546568, 9.005438669102613, -8.7132667251218, 2.8944130473601324, -0.9230766031044326], [1.2709653665975869, -4.091992231021019, 1.6543473796445867, 5.4688634507862455, 3.5480485265601986, 6.185839780232882, -1.9891616485382564, -5.63321207661518, -1.5340054604316948, 3.7138127254768496, 3.3910910744957694, -3.949474261673207, -3.8616968279987893, 0.2437446019556903, 1.4192365609341837, -0.5014810482241442, -1.7833633215042655, 2.3412904179893794, -4.289423558151366, -2.2769100089698555, -0.33197404234792], [3.7758186161252305, -3.1171883760431087, 3.9080116950011514, 2.2850207165820215, 3.9687158218962675, 6.2244696603741065, -2.888002659192797, -5.105352231321237, -1.0445946643799073, 3.789968392271938, 1.4596451261635914, -3.109146165131884, -2.8469444885294592, -2.508957495260905, 1.263631436205026, -3.0137668124443184, -1.0406476574696157, 2.6722101759514354, -2.1533804952564983, -4.20130769157214, 0.21350708750113032], [1.3427282013792954, -3.720947555080195, 1.6500267846923617, 5.937896686705283, 2.184314222411985, 7.623620835302028, -2.8893808778169805, -5.981441944723058, -2.5987741552815375, 3.0533131279536168, 2.1354577915175263, -3.3640500499667683, -2.5937565052525375, 1.681561451192372, 2.0023076694424993, -2.3244700658385096, -2.2572873104292666, 2.280950308410034, -3.14143828583707, -1.684646757589264, -0.5397254185112915], [16.480014623717558, 9.169770402587496, -0.45151697066806, 2.6165604093292947, -1.0005222508226284, -6.864734902014769, 1.0819716122869643, 10.648026464849687, -4.018187892462239, -5.8522744519081895, -1.7218447593692123, -11.214794020813825, 1.6584728963197704, 3.898007229734908, -1.089851044577023, 1.3845939625489014, 2.655247079339719, 0.585821380162443, -3.2256133973417187, 2.035182782930723, -5.222984741726567], [0.4509806530160133, 1.820153934315348, -4.7064924492039015, 8.185903310112607, -0.9988859595341, -2.0637324529970966, 2.4716132706534224, 5.503646920305476, 3.6932590917995958, -0.8884090315149067, -4.058538592597004, -3.215121631713703, 3.905643838343365, 9.114667670213722, 1.4049221643909109, 1.9017061028815483, 1.3302725384211471, -2.9909617519822556, -3.2430435261118182, 3.5365522600959647, 1.7425791130064474], [1.5485779095212298, -5.733179805437946, -0.9766668034892633, 0.6801473344218653, 0.30686043910447197, 1.0733004677638776, 4.318555792029636, 8.483366839258139, -6.6923082428335, -2.7710853010563476, 6.601078026144595, -4.087431360978337, -0.5024326279699285, -4.257738785286572, -1.7958065618587462, -2.456823193160273, 1.524460634048524, 1.3744083459285317, 5.310312243913459, -1.3711825231104358, -0.3625949649135879], [0.6629661562014082, -1.0084812587479106, -1.2634749351405798, -4.329669249617539, 0.7029446587624337, -2.40724008116688, -1.0385699448793377, -2.565597916193853, -6.2536631322492795, -0.26688193291214535, 3.282561554801957, 2.981121795733978, -1.7184709605030286, 5.332963292263418, -1.419469501568582, 0.544462028965464, -1.9949873087759198, -1.6670912704889862, -1.3686529903564695, -2.3922617744233814, -2.8127831419084073], [8.345202848559364, 4.404764055132869, 1.0232929399810795, -10.1756676050484, -1.6100837137045305, -0.8802752044829694, 3.3093582016342826, 6.0070811006608045, -2.9806806928277885, -2.657808533209155, 0.5061300779979487, -2.433942136284644, 0.3594255166363619, -8.20175053288624, -2.607645218437512, -5.791387687039021, 1.8555149135989004, -0.8163700354221687, 5.175174879651749, -6.308423462313161, -1.3501180678814628], [1.2156585086512095, 1.3887226508647024, -11.154528310622588, 6.658849628863773, 2.0674917094843823, 2.5814712828438475, -4.146937317841449, -5.14781184813556, -1.008073153960496, 1.6445345886181335, 7.085997458816893, -6.963324734519017, 3.2642299311738014, -2.5933239921007827, 1.5505398052052048, -0.710054735563152, -6.543069190548887, -7.250712585532113, -1.0911335867683565, -1.7557896992613633, 2.54860614774945], [3.6379273107242467, 0.6891416230554573, -3.830483645326728, 5.37470716315542, -1.5310317509096145, -4.148319982433721, 1.9285576409004561, -1.1370048467204101, 4.788663655991456, 1.0928486888153814, -5.050356042378769, -2.2550997053639623, 4.001391682940159, -1.6408588019534254, 0.8657222701360913, -4.33575183482849, 2.241070859909485, -3.4923190281035477, 7.829843288319635, -7.638193784848212, 2.0124420178471136], [0.4328654640082163, 0.6147027598070883, -0.7082670704022411, -0.6299325522970861, -2.604383026622402, -2.381158925498759, -1.576074578280703, 7.657917097942271, -1.3309783952606393, -1.2068552086982218, -3.8361431497336738, 3.4492499045230445, 0.6947386538030569, 6.718030170867326, -1.7290832669057024, 4.3599838119226915, 0.30726874158464834, -2.5209289978087344, -9.748591369150386, 5.784566210335764, -1.6854891303396362], [-2.283221773667508, 5.341409989745191, -9.946220327714512, -3.300876527986896, 3.426860124146462, 9.213059074804994, -3.3921757712668095, 0.9869052697757167, -4.231570846213923, 1.5897414863496149, 1.6671607304110552, -0.44838500080132365, -1.9853230887038298, 7.482025174085532, -0.03915624759934916, -3.3305885904029005, -0.767526440510192, -2.975188179998111, 12.013247348992792, -5.8929323633401385, -4.1776524614448105], [10.288802230557792, 9.01024405759862, -7.444241762875866, -7.761907236344834, 1.0865698294534047, 8.978963972300958, -4.097251956393504, 4.0440780706679105, -2.449578908869601, -0.4565945270447583, -4.741826690962716, -1.7776281117222996, -4.442020095138044, -4.844094587800737, -1.2870883774167923, 5.230172280178829, 4.013613465908348, -2.4797020185099954, -6.678932802553022, 9.479303183886001, -3.965815303848711], [-5.895590688906406, 6.898400535522879, -5.015644329926642, 6.785950732736869, -2.1994110930820745, 3.8414193688207656, 1.2676171711111546, -3.51622223467595, 0.3385894867829842, -1.62765325589845, -3.3936708553417656, -3.8274468392371688, 1.256588470871699, -0.6502791312687083, -0.02547408237011473, -1.3262763518574128, -3.7615743307136364, -5.320956256924167, -3.981856735100218, -2.355027844149354, -1.495028007090695], [-4.8406637530968695, 4.8920025061882315, -3.9303753578731664, 5.154071803669627, -1.7983472367562794, -2.058597643441179, 2.2180133009004814, -0.8308619622491736, 3.962821082074607, -0.2921571667603135, -4.798273554669517, -5.376256215866886, 2.5353758767485877, -4.520314943525882, 0.38177458639386735, -3.2329990814812968, 4.835055672094732, -0.22353420123020257, 0.9230518212036873, -3.152032165502179, 1.708540453878802], [-11.437671202502587, -9.82461641683512, 0.3969651842462779, 7.898725059782492, 2.188016897262595, -1.0554007096660056, -6.290364729128836, 3.772717910733065, 2.854908134017753, 2.1347570582398183, 0.2831693917948563, -0.5206791269160224, -1.307211886069221, -1.650683037340219, 0.6973385345602809, -2.807333339823812, -14.882494315918203, 6.3502462636287325, -0.040528315197792125, -4.316200831724955, 1.3003482109715534], [-2.5427420268585985, 6.980151889273572, 1.8174927717054676, 9.226054526388362, -0.10191513642155027, 4.959419531622632, -6.366208336207663, 6.355214586701452, 0.7045004153054397, -1.040945890046811, -5.1059197548521995, 0.5943132968356892, -5.587356715041763, 14.257292638076972, -2.329608765376917, 2.1470744498624312, -8.971086502950367, -4.13017391305761, -10.016831911971442, 2.7983263183943436, -4.389502901558566], [-3.461804084856974, 3.161390557135968, 3.229293088336506, -5.310743275758438, 4.384915382625241, -6.944998792426743, -7.469238612317897, 7.186750635212658, 4.30150236629874, 4.5850648308955435, 3.7108102487947163, 2.637779192840654, -2.939149869421033, -3.742828926356157, 1.7336357525839716, -7.298258888527784, -13.35911938489172, -9.112758610785095, -2.560449408128505, -9.73706590720457, 0.8039944228026074], [-5.673865279676265, 0.13113290199842556, -7.501186532094735, 1.4311173734791065, -2.857309305736965, 0.819827359989424, 2.6608148140424417, 1.3224169289120826, 1.3770865276655526, -2.8781276618480174, -2.66562804017176, -2.185824736412531, 2.520899046292749, -0.2759502437710831, 0.7021949738332254, -1.533035768568053, 4.160618924469948, -4.941722625993603, -1.7395545334038025, -1.8284666214367478, -0.2932257703758231], [-5.0205223847829465, 4.472851737545728, -4.576523085024217, 5.575518362916561, -2.5723996426141573, -1.145031170182535, 2.4779798127498722, -1.2163960472047857, 4.173744411683713, -0.3669612793632832, -4.5398164143921615, -4.168120328642829, 2.3953846636619494, -3.7784574397323363, 1.0922361900039965, -4.284867429610888, 4.74730678146524, 0.7219778369707307, 1.0938614949089611, -3.0288420499945876, 0.9719445293510645], [3.0982445832103034, -4.041630969683543, -0.16558021255341954, 0.5119219424292077, -0.08033073850300503, 2.536191367022695, -1.0405034856749817, 0.8306186714384519, -5.691172211751075, -1.5940819489455358, 2.5104836415484617, -8.09094222461973, -2.1165555297288208, -4.120591910054584, -1.172914772649102, -1.6373335442241583, -2.8946553425269173, 6.8005356109794395, -3.050432838903891, -1.1293745253553846, -3.2298523205142255], [-0.36384037330629826, 4.673707822914201, -15.871770488787257, -1.0367506045037296, -0.6643907987089192, 6.793488252794629, -4.825550839792903, -8.461750620951705, -0.3769850532650417, 4.144482686075688, -2.02515707394358, -1.1841755551416004, 0.6223178736156048, 11.830852617845498, -1.7914374284382806, 0.36336266106694903, -6.402229172388452, 1.044365180532447, 0.39993965838893875, -1.4402729566576027, 0.8961459914197023], [2.950822023814066, 6.9405728332162395, 6.248978408241838, -11.958834721564484, 0.4658347339416395, 4.707083672296994, -5.544715489950633, 14.67257253587926, 0.5357419691989663, -2.9306031215958597, -3.0921706105041276, 0.9079215538173734, -4.565291786385365, -3.597989038402509, -0.6818552874262774, 0.8030851056898195, 11.49842864442676, -6.0916023052942645, -7.491280193229275, 2.019846042443721, -3.608036282295171], [0.19036911942094278, -5.606985523773761, -3.1787004358329565, 6.547830794519928, 0.930759341459872, 4.525831734908094, 2.4381544548066136, 4.094485562332698, -0.22066884520351263, -0.7837282857983465, 1.3292420765494404, -4.037970980078959, 1.5211699054526862, -2.1707331679146553, 0.6136400781842528, -1.99621817076258, 2.918400870943884, -5.992859134473212, 0.538570183142636, -1.1105503666786212, 0.19338084003073805], [1.1772477693663428, 8.702216238430161, -2.9999510833674266, 2.4871683652399645, -0.22001205271624563, -0.7831961075209752, 2.343194782961342, 5.703914724070633, 4.821166195645136, -1.229058002600427, -4.275697354171805, -5.5124901299785884, 3.2454660389626517, -5.517377630419904, 1.3990934156726988, -1.596304186544058, 2.5635290073627117, -1.1174204874120008, -5.6458624683124015, -1.0794007560086938, 1.6453882360526875], [-1.8060868467857247, 2.2805060176459895, -5.5025998634844155, 1.5955332126684565, -1.4563696097078547, -6.679722772651675, -4.634373978992609, -7.696131278030663, 0.6285509257014694, 0.24113590142763786, -0.8138817138794321, -1.489498868682146, 3.043420032752241, 0.7368509499649166, -0.31926316995975934, -0.8720274294401542, -2.5204590801229334, -8.656709641556231, -4.987160128605633, -0.8648749025453351, -0.993477055307737], [2.6750563531161866, -1.400166355313425, -0.36265830301604757, -4.639471892960665, -0.34479172791719076, -1.9938063755798523, -1.5394828373995244, -4.788717994144409, -3.801605740267866, -0.2446651041755053, 1.2148178236086635, 1.951706634930228, -2.4002398934876736, 6.448093951585803, -1.6568257133188296, 1.1502435984830293, -1.1461446012610592, -1.6889949497594587, -0.9007313271716065, 1.521340462266541, -3.0765816775771895], [1.370137279195523, 9.237710949239977, -14.450764661292522, -9.419949786781979, -2.7297648890868116, -1.7304644736746355, -4.441055957646146, -6.369853523318579, -1.071299197884575, 4.94455852856691, 4.69315699792202, -1.278455087592995, 3.1785981035096778, -4.2716094562199105, 0.3472539892730826, -3.3548088920017975, -2.6195633568902292, 1.5817659269355924, -6.269978477826364, -2.9027514612099186, 2.501209199768082], [1.2237058037665531, -8.932454575480119, 4.856693787958364, 10.095932251173682, 0.5656221193378225, 1.300271158482812, 1.5375125403275869, 11.77299682440762, 2.4405231860060317, -6.3095950334250945, -0.5992180529423723, 0.40541980655896664, 2.090611017764917, 1.7300615484683899, -0.6371777408212087, 2.6362256121823906, -4.393764521926781, -6.241161456738028, -0.7793878327580432, 4.763387563751343, -0.7735537438261043], [-7.125628328971552, 1.8530399525499206, -0.0603348206738551, 9.620492941477117, -0.732265438607691, 2.852387705383732, -2.2347709922088654, 4.056356465001838, -0.5989261247140721, -2.3958950320461274, -1.2746095810390181, -4.17988466180144, -0.278432200314909, -11.06799471376002, -3.214910035283637, -2.7208284775343, -8.179982633930905, 8.688614739454982, 3.8176511717966384, 1.1590594735506166, -3.0277806104169755], [-2.8374296909686048, -4.173333543890009, 4.258980005458835, -8.155862491218432, 1.5337383509337303, 13.695253844644428, 6.998597193964373, -3.586922180963671, 2.625696256486193, -3.6228038645052187, 1.6266746782051618, 1.8345522459355563, 0.8029961851409606, -9.645112909872426, 0.3722718640106948, -1.4734545660701996, 4.3758057665508385, 1.5738188399281228, -3.624746236398003, 4.98564918694162, 2.0331977489529622], [-0.2777731755278055, -2.6133584608110985, -3.0070621486641653, -6.688934010431585, 3.422457194520097, 12.874059426040551, 2.735084286507409, -10.251769248112842, 0.7129098235165885, 1.6607561570823337, 4.006495063639356, -0.16053227014540664, 2.4803919525057605, -1.1363891049137387, 1.5944167035365715, -0.9831939378310036, 6.58693957619208, -0.309081796889356, -2.427834452627282, 10.210351673146798, 1.5014144380547598], [4.195240252220482, -8.61917233506494, 6.230409788592969, 5.8732340059999215, 4.765028448009833, 4.926781190158912, 6.067241252579242, -1.0374052603834605, -1.9564206029983975, -7.065564101528705, 3.5286884186037626, -1.474429389771564, 0.3698296696680326, -0.1327890496936856, 1.007083051491725, -0.38477034996662485, 3.004258747708003, -0.23838327157852424, -7.695267486689337, -0.3135051238724785, -0.7998140242347986], [-0.7570410148147707, 6.163250773347395, -12.90566694388315, 0.2634286751477775, -2.0490471073766656, 13.11915102749033, -5.1107875611887605, 3.876368246084979, 1.381450880494539, -3.0175723909441614, -3.0591701665043654, -4.4327242148248445, 1.0203829030668632, -5.677910964545547, -3.5591813840275637, 1.4130958351282155, -2.441225012865857, 10.097190317079221, 3.740280098245034, 4.4909521697138555, -3.176125788513871]]]}